digraph Tree {
node [shape=box] ;
0 [label="number_inpatient <= 0.5\ngini = 0.496\nsamples = 100.0%\nvalue = [0.544, 0.456]"] ;
1 [label="number_diagnoses <= 5.5\ngini = 0.468\nsamples = 66.9%\nvalue = [0.626, 0.374]"] ;
0 -> 1 [labeldistance=2.5, labelangle=45, headlabel="True"] ;
2 [label="gini = 0.406\nsamples = 16.4%\nvalue = [0.717, 0.283]"] ;
1 -> 2 ;
3 [label="age <= 55.0\ngini = 0.481\nsamples = 50.4%\nvalue = [0.597, 0.403]"] ;
1 -> 3 ;
4 [label="gini = 0.46\nsamples = 14.4%\nvalue = [0.641, 0.359]"] ;
3 -> 4 ;
5 [label="num_lab_procedures <= 52.5\ngini = 0.487\nsamples = 36.0%\nvalue = [0.579, 0.421]"] ;
3 -> 5 ;
6 [label="gini = 0.493\nsamples = 22.9%\nvalue = [0.559, 0.441]"] ;
5 -> 6 ;
7 [label="gini = 0.474\nsamples = 13.1%\nvalue = [0.614, 0.386]"] ;
5 -> 7 ;
8 [label="number_inpatient <= 1.5\ngini = 0.471\nsamples = 33.1%\nvalue = [0.379, 0.621]"] ;
0 -> 8 [labeldistance=2.5, labelangle=-45, headlabel="False"] ;
9 [label="gini = 0.492\nsamples = 18.8%\nvalue = [0.437, 0.563]"] ;
8 -> 9 ;
10 [label="gini = 0.423\nsamples = 14.4%\nvalue = [0.304, 0.696]"] ;
8 -> 10 ;
}